{
  "type": "QEntL\u91cf\u5b50\u795e\u7ecf\u7f51\u7edc",
  "version": "2.0.0",
  "layers": [
    16,
    32,
    16,
    8
  ],
  "weights": [
    [
      -0.01960922771017115,
      0.4884024015565158,
      -0.8197469226518641,
      0.1894542925192242,
      -0.5698187487770325,
      -0.7457494016463002,
      0.2888286920252545,
      -0.622553901284554,
      0.3238070637748669,
      -0.9698953426698151,
      -0.8938134453014033,
      -0.7500793637255743,
      -0.23502758975985127,
      -0.8797100750671141,
      -0.9727664623610719,
      -0.05800883985202998
    ],
    [
      -0.29129033161340123,
      0.7041560660009969,
      -0.8919241127444326,
      -0.108082522821773,
      0.28056610744028343,
      -0.9859793326766229,
      0.013578544075289134,
      -0.19310683394348405,
      -0.003554782184642894,
      -0.7019103829841093,
      0.975801417046638,
      -0.34500691300125985,
      0.08548594771656814,
      -0.3780737160934158,
      -0.33173463726399066,
      0.4455955790172499,
      0.5550224641496835,
      0.14288881854978697,
      0.8910308600165324,
      -0.7117797053165646,
      -0.921704984539746,
      -0.05650997050698714,
      -0.2386207082682461,
      0.18483541347840182,
      -0.8672443263270395,
      0.25099925687388147,
      -0.6428426510490517,
      0.7176606009484991,
      0.7411508076276647,
      0.3028576512086383,
      0.14341625162202543,
      -0.29134821650718856
    ],
    [
      0.6212912612695438,
      0.6347684537059162,
      0.3347225796258382,
      0.1839959584346733,
      0.980863948890208,
      -0.8485437532585165,
      -0.9522626872617492,
      -0.5090259363276528,
      0.5156145931367508,
      -0.8657272482105385,
      0.1110065200999546,
      0.10256192624552507,
      0.4246239927367905,
      0.2487793827774365,
      0.4147131067136991,
      -0.33556646193297235
    ],
    [
      -0.5659189907221083,
      -0.3034713603260317,
      0.8838861064501748,
      -0.7971206287183414,
      0.8918188187650515,
      0.21242329629757828,
      0.3481848339177267,
      -0.8757499227245635
    ]
  ],
  "trained": "2026-03-25 23:03:50"
}